<?xml version="1.0"?>
<opencv_storage>
<cascade>
  <stageType>BOOST</stageType>
  <featureType>LBP</featureType>
  <height>48</height>
  <width>41</width>
  <stageParams>
    <boostType>GAB</boostType>
    <minHitRate>9.9500000476837158e-01</minHitRate>
    <maxFalseAlarm>5.0000000000000000e-01</maxFalseAlarm>
    <weightTrimRate>9.4999998807907104e-01</weightTrimRate>
    <maxDepth>1</maxDepth>
    <maxWeakCount>100</maxWeakCount></stageParams>
  <featureParams>
    <maxCatCount>256</maxCatCount>
    <featSize>1</featSize></featureParams>
  <stageNum>20</stageNum>
  <stages>
    <!-- stage 0 -->
    <_>
      <maxWeakCount>3</maxWeakCount>
      <stageThreshold>-1.0075055360794067e+00</stageThreshold>
      <weakClassifiers>
        <_>
          <internalNodes>
            0 -1 19 -654192421 -786364383 134238343 1498611985
            -527849298 294324353 2047051483 1066337263</internalNodes>
          <leafValues>
            -8.6410635709762573e-01 6.7493110895156860e-01</leafValues></_>
        <_>
          <internalNodes>
            0 -1 54 78985599 -1344647923 -648654473 1044690384 -69724227
            -1107483895 -1210134571 -50528520</internalNodes>
          <leafValues>
            -7.5530862808227539e-01 6.8947798013687134e-01</leafValues></_>
        <_>
          <internalNodes>
            0 -1 33 -799743780 1493741763 1073741847 -782657469
            -2101296984 -1182039926 336068777 1379912607</internalNodes>
          <leafValues>
            -8.3287715911865234e-01 6.2010300159454346e-01</leafValues></_></weakClassifiers></_>
    <!-- stage 1 -->
    <_>
      <maxWeakCount>3</maxWeakCount>
      <stageThreshold>-1.0589222908020020e+00</stageThreshold>
      <weakClassifiers>
        <_>
          <internalNodes>
            0 -1 30 -71183137 -786496700 1212350493 2031309075
            -259553125 151453833 -594959685 859504799</internalNodes>
          <leafValues>
            -8.8138383626937866e-01 4.5034641027450562e-01</leafValues></_>
        <_>
          <internalNodes>
            0 -1 47 792464759 354391835 -1579574849 -41240358 1843202557
            -270553029 -387011139 -88546972</internalNodes>
          <leafValues>
            -7.4491018056869507e-01 6.5979361534118652e-01</leafValues></_>
        <_>
          <internalNodes>
            0 -1 57 208486197 1064032112 -41978345 -19080354 -1939886306
            -372384269 -1099208396 -55804576</internalNodes>
          <leafValues>
            -7.6435852050781250e-01 6.8292772769927979e-01</leafValues></_></weakClassifiers></_>
    <!-- stage 2 -->
    <_>
      <maxWeakCount>4</maxWeakCount>
      <stageThreshold>-5.2652245759963989e-01</stageThreshold>
      <weakClassifiers>
        <_>
          <internalNodes>
            0 -1 22 -653012229 -615135984 268533843 -149733085
            -259484981 596312202 134220223 999256555</internalNodes>
          <leafValues>
            -8.3766233921051025e-01 4.1509434580802917e-01</leafValues></_>
        <_>
          <internalNodes>
            0 -1 44 135736957 682455536 -1831615393 -1164143721
            514405327 -1142710079 -493623132 -1125586272</internalNodes>
          <leafValues>
            -7.6855129003524780e-01 5.5232292413711548e-01</leafValues></_>
        <_>
          <internalNodes>
            0 -1 3 1442572031 611230345 -402322934 -2074180268
            -1733726713 -488619121 -745956558 -83968258</internalNodes>
          <leafValues>
            -7.4218612909317017e-01 6.2402939796447754e-01</leafValues></_>
        <_>
          <internalNodes>
            0 -1 62 -931763363 1809281303 -1235565409 -629525669
            1237981504 -13489061 -1405551932 -84362241</internalNodes>
          <leafValues>
            -7.5175362825393677e-01 6.4720255136489868e-01</leafValues></_></weakClassifiers></_>
    <!-- stage 3 -->
    <_>
      <maxWeakCount>3</maxWeakCount>
      <stageThreshold>-1.0491588115692139e+00</stageThreshold>
      <weakClassifiers>
        <_>
          <internalNodes>
            0 -1 36 -217848423 -1862156007 268665497 -116703053
            -670522199 -1358696311 -83785281 1025213119</internalNodes>
          <leafValues>
            -7.7812016010284424e-01 4.2199489474296570e-01</leafValues></_>
        <_>
          <internalNodes>
            0 -1 64 615980567 929060191 -1733960713 974611851 1697278489
            -58095037 -585136065 -85301385</internalNodes>
          <leafValues>
            -7.3539316654205322e-01 5.5198496580123901e-01</leafValues></_>
        <_>
          <internalNodes>
            0 -1 21 655065891 -1385643174 -214890593 -139015257
            151661823 -850642803 1220346098 -34143085</internalNodes>
          <leafValues>
            -7.3576050996780396e-01 5.8890014886856079e-01</leafValues></_></weakClassifiers></_>
    <!-- stage 4 -->
    <_>
      <maxWeakCount>3</maxWeakCount>
      <stageThreshold>-9.6212542057037354e-01</stageThreshold>
      <weakClassifiers>
        <_>
          <internalNodes>
            0 -1 53 -2039032545 -1152236724 1506349853 -136952556
            130668973 -1094149332 1790733544 -1076725616</internalNodes>
          <leafValues>
            -7.8187406063079834e-01 4.3444728851318359e-01</leafValues></_>
        <_>
          <internalNodes>
            0 -1 26 253826487 -1113168705 -368602281 -615214586
            -1397937699 -1417060245 1785285343 -33599067</internalNodes>
          <leafValues>
            -6.9327133893966675e-01 6.0751801729202271e-01</leafValues></_>
        <_>
          <internalNodes>
            0 -1 37 784094713 -77895225 -652553249 1073263566 -458479876
            -70661621 422052572 -1429587912</internalNodes>
          <leafValues>
            -7.0330137014389038e-01 6.2536817789077759e-01</leafValues></_></weakClassifiers></_>
    <!-- stage 5 -->
    <_>
      <maxWeakCount>4</maxWeakCount>
      <stageThreshold>-5.8180522918701172e-01</stageThreshold>
      <weakClassifiers>
        <_>
          <internalNodes>
            0 -1 61 -44302423 -1709916732 1233 -615992748 205779113
            -1360363252 1846356437 -84018964</internalNodes>
          <leafValues>
            -7.7884614467620850e-01 3.5096153616905212e-01</leafValues></_>
        <_>
          <internalNodes>
            0 -1 15 -799409253 -248434349 -1073139569 -742143735
            -1836505617 850266635 -779496737 932909995</internalNodes>
          <leafValues>
            -7.9692953824996948e-01 4.6719366312026978e-01</leafValues></_>
        <_>
          <internalNodes>
            0 -1 78 2010088235 -2132815265 -1341849370 1654609952
            -486449152 1610875018 -796234956 -89130762</internalNodes>
          <leafValues>
            -7.0908403396606445e-01 5.4539752006530762e-01</leafValues></_>
        <_>
          <internalNodes>
            0 -1 65 -95090627 319934497 1196233111 186238797 -997911996
            -574453719 -7562437 -86086097</internalNodes>
          <leafValues>
            -6.8123477697372437e-01 6.0794407129287720e-01</leafValues></_></weakClassifiers></_>
    <!-- stage 6 -->
    <_>
      <maxWeakCount>4</maxWeakCount>
      <stageThreshold>-6.1438518762588501e-01</stageThreshold>
      <weakClassifiers>
        <_>
          <internalNodes>
            0 -1 77 -548932118 -510066221 -985280444 -924364323
            -796780287 -1851674487 -1701144224 -91231333</internalNodes>
          <leafValues>
            -7.9705399274826050e-01 3.4265735745429993e-01</leafValues></_>
        <_>
          <internalNodes>
            0 -1 12 -1005008266 -741899759 -1459433470 -712421247
            1084819148 1225766912 1523339516 1524619691</internalNodes>
          <leafValues>
            -8.1567150354385376e-01 4.1290801763534546e-01</leafValues></_>
        <_>
          <internalNodes>
            0 -1 10 -2014847169 -876511073 -1940880533 -67435887
            1611170179 771920043 88826039 -589306889</internalNodes>
          <leafValues>
            -5.8894532918930054e-01 6.4424294233322144e-01</leafValues></_>
        <_>
          <internalNodes>
            0 -1 5 -824770545 -1463434786 -2147168036 -468791046
            -727168229 -1051016446 -267986396 -859838282</internalNodes>
          <leafValues>
            -7.8100520372390747e-01 5.1614868640899658e-01</leafValues></_></weakClassifiers></_>
    <!-- stage 7 -->
    <_>
      <maxWeakCount>4</maxWeakCount>
      <stageThreshold>-1.6362574100494385e+00</stageThreshold>
      <weakClassifiers>
        <_>
          <internalNodes>
            0 -1 76 -51126449 1981661249 302025048 1377809425
            -1039060736 -770708222 -525674238 -85992481</internalNodes>
          <leafValues>
            -7.2907155752182007e-01 3.6292427778244019e-01</leafValues></_>
        <_>
          <internalNodes>
            0 -1 68 -301992661 -1518808228 -240045574 1400952256
            1772735407 -2003113811 -1978956016 -587936560</internalNodes>
          <leafValues>
            -7.3989099264144897e-01 4.6626016497612000e-01</leafValues></_>
        <_>
          <internalNodes>
            0 -1 9 -301798237 -838823160 -377339473 2038542344 50846695
            -552910397 1137928178 2035249623</internalNodes>
          <leafValues>
            -7.7271270751953125e-01 4.8153248429298401e-01</leafValues></_>
        <_>
          <internalNodes>
            0 -1 6 -939275543 -707641199 -665464240 -227482062
            -500872634 -561837919 -215359846 -94913813</internalNodes>
          <leafValues>
            -6.4882737398147583e-01 5.9276831150054932e-01</leafValues></_></weakClassifiers></_>
    <!-- stage 8 -->
    <_>
      <maxWeakCount>4</maxWeakCount>
      <stageThreshold>-6.8971359729766846e-01</stageThreshold>
      <weakClassifiers>
        <_>
          <internalNodes>
            0 -1 34 -2765905 -146272192 -670985021 -202780415 -167212369
            -1607847795 312235 282021019</internalNodes>
          <leafValues>
            -8.0487805604934692e-01 2.6180258393287659e-01</leafValues></_>
        <_>
          <internalNodes>
            0 -1 79 -1210846325 -1025818403 -1174206996 -430601012
            1942827078 2023891202 -231755488 -419445505</internalNodes>
          <leafValues>
            -7.8090888261795044e-01 4.0827184915542603e-01</leafValues></_>
        <_>
          <internalNodes>
            0 -1 24 612840243 -1551384266 -2130505377 -805308408
            556721141 -318597000 1070490833 -1378884443</internalNodes>
          <leafValues>
            -6.7574965953826904e-01 5.2458816766738892e-01</leafValues></_>
        <_>
          <internalNodes>
            0 -1 11 -653408301 1343864832 147940724 -785268736
            1143112845 -901767167 1258898440 1592348231</internalNodes>
          <leafValues>
            -6.8403834104537964e-01 5.8141642808914185e-01</leafValues></_></weakClassifiers></_>
    <!-- stage 9 -->
    <_>
      <maxWeakCount>5</maxWeakCount>
      <stageThreshold>-9.8402601480484009e-01</stageThreshold>
      <weakClassifiers>
        <_>
          <internalNodes>
            0 -1 66 -546308173 -1803494642 1495193684 -311639872
            290494867 -1022799323 1889565317 -842411567</internalNodes>
          <leafValues>
            -7.1471470594406128e-01 3.6363637447357178e-01</leafValues></_>
        <_>
          <internalNodes>
            0 -1 18 -929843841 463536147 -1072170527 -2113347303
            -1189937139 -641169846 -402649398 -31133138</internalNodes>
          <leafValues>
            -6.7114591598510742e-01 4.9042728543281555e-01</leafValues></_>
        <_>
          <internalNodes>
            0 -1 72 -425722537 921932061 -403365569 882692505 236812818
            2038776363 -108791720 -67134357</internalNodes>
          <leafValues>
            -5.8096933364868164e-01 5.8491969108581543e-01</leafValues></_>
        <_>
          <internalNodes>
            0 -1 4 -724316977 -737029376 -1567501544 -637218540
            1086416213 1519124640 -1668613726 -738010251</internalNodes>
          <leafValues>
            -6.0869652032852173e-01 6.0567653179168701e-01</leafValues></_>
        <_>
          <internalNodes>
            0 -1 42 1073857800 1375785104 1409859932 -1157017404
            1753530574 -32833408 -1591639815 1582022735</internalNodes>
          <leafValues>
            -7.8444582223892212e-01 5.1353693008422852e-01</leafValues></_></weakClassifiers></_>
    <!-- stage 10 -->
    <_>
      <maxWeakCount>4</maxWeakCount>
      <stageThreshold>-6.8007963895797729e-01</stageThreshold>
      <weakClassifiers>
        <_>
          <internalNodes>
            0 -1 51 296827615 -644431387 -2088315711 -1646493570
            -754935383 -1580695414 -216489304 -2561044</internalNodes>
          <leafValues>
            -7.3775672912597656e-01 3.1203931570053101e-01</leafValues></_>
        <_>
          <internalNodes>
            0 -1 25 -270565 -1319553152 -2147399807 -110779885
            -2038383890 -1979110168 -24780738 1203704722</internalNodes>
          <leafValues>
            -7.6673710346221924e-01 4.1051486134529114e-01</leafValues></_>
        <_>
          <internalNodes>
            0 -1 58 -155194001 888881941 -1995069125 -479723195
            -1073606467 294854889 -492703544 -457639032</internalNodes>
          <leafValues>
            -6.4528793096542358e-01 5.0782549381256104e-01</leafValues></_>
        <_>
          <internalNodes>
            0 -1 35 -1045961247 -1601920555 1172898918 -788473383
            -775756897 -16727760 -1241490697 958894751</internalNodes>
          <leafValues>
            -7.3320734500885010e-01 4.6257477998733521e-01</leafValues></_></weakClassifiers></_>
    <!-- stage 11 -->
    <_>
      <maxWeakCount>4</maxWeakCount>
      <stageThreshold>-5.5395799875259399e-01</stageThreshold>
      <weakClassifiers>
        <_>
          <internalNodes>
            0 -1 71 -942154981 -1979534206 -2122229419 -144912124
            347041495 -1744534143 -930725107 -51643876</internalNodes>
          <leafValues>
            -7.3459714651107788e-01 3.0712530016899109e-01</leafValues></_>
        <_>
          <internalNodes>
            0 -1 50 -476996083 1043927827 167827871 -1566960896
            1352374276 -1885502454 -83182344 -319962609</internalNodes>
          <leafValues>
            -6.8267148733139038e-01 4.3393826484680176e-01</leafValues></_>
        <_>
          <internalNodes>
            0 -1 27 614018851 -844842508 327507738 -80371254 135377915
            -471996270 1803794684 -622538093</internalNodes>
          <leafValues>
            -6.1796593666076660e-01 5.5656719207763672e-01</leafValues></_>
        <_>
          <internalNodes>
            0 -1 43 -512245875 192975964 352408008 -174794808 2063666062
            2055275023 -385798584 -326895536</internalNodes>
          <leafValues>
            -6.7705559730529785e-01 5.0965631008148193e-01</leafValues></_></weakClassifiers></_>
    <!-- stage 12 -->
    <_>
      <maxWeakCount>4</maxWeakCount>
      <stageThreshold>-7.2980147600173950e-01</stageThreshold>
      <weakClassifiers>
        <_>
          <internalNodes>
            0 -1 69 -719110565 860899139 -1794703905 874041370
            -1316982778 -634945342 -657863122 -19153897</internalNodes>
          <leafValues>
            -7.5342464447021484e-01 2.1929824352264404e-01</leafValues></_>
        <_>
          <internalNodes>
            0 -1 55 1347929285 -598205885 543277138 750652033 -373168060
            1531545617 -1104669480 -1259865185</internalNodes>
          <leafValues>
            -7.6483589410781860e-01 3.4931373596191406e-01</leafValues></_>
        <_>
          <internalNodes>
            0 -1 41 -2034460719 -1324330035 -1147470895 1607827533
            -1521901001 -87457618 -387549087 -1296963467</internalNodes>
          <leafValues>
            -6.7318081855773926e-01 4.8823267221450806e-01</leafValues></_>
        <_>
          <internalNodes>
            0 -1 13 -569675169 -1035763620 67645450 -2141699837
            -368940532 -1742716896 -83722197 -927601803</internalNodes>
          <leafValues>
            -6.2523263692855835e-01 5.5443835258483887e-01</leafValues></_></weakClassifiers></_>
    <!-- stage 13 -->
    <_>
      <maxWeakCount>5</maxWeakCount>
      <stageThreshold>-1.1466265916824341e+00</stageThreshold>
      <weakClassifiers>
        <_>
          <internalNodes>
            0 -1 52 -721235219 -753926134 1619018075 -41856500 159555834
            -394067198 1074064350 502122651</internalNodes>
          <leafValues>
            -7.5163400173187256e-01 2.8037384152412415e-01</leafValues></_>
        <_>
          <internalNodes>
            0 -1 0 -146736448 -1189609068 2097217792 362659873 412123801
            -1343569920 -905830472 2073022619</internalNodes>
          <leafValues>
            -6.6499322652816772e-01 4.0184170007705688e-01</leafValues></_>
        <_>
          <internalNodes>
            0 -1 32 -1702284047 -1291583265 -1851682084 -1046929390
            -125247066 438766216 318943455 1878991515</internalNodes>
          <leafValues>
            -7.1478366851806641e-01 4.2998319864273071e-01</leafValues></_>
        <_>
          <internalNodes>
            0 -1 70 -108926628 1930465424 65536 -251543207 -1610063712
            -335379968 -931084216 -260871409</internalNodes>
          <leafValues>
            -5.7102060317993164e-01 5.6122034788131714e-01</leafValues></_>
        <_>
          <internalNodes>
            0 -1 2 -765531009 -1342054248 872448156 -2008873215
            1672036522 -671085950 1745048272 2059788042</internalNodes>
          <leafValues>
            -6.5562218427658081e-01 4.8896995186805725e-01</leafValues></_></weakClassifiers></_>
    <!-- stage 14 -->
    <_>
      <maxWeakCount>4</maxWeakCount>
      <stageThreshold>-1.3525979518890381e+00</stageThreshold>
      <weakClassifiers>
        <_>
          <internalNodes>
            0 -1 39 -1178076193 -246902501 864076087 -284254117
            -668444420 -1131953735 -326353201 -22230390</internalNodes>
          <leafValues>
            -6.4673155546188354e-01 3.8940811157226563e-01</leafValues></_>
        <_>
          <internalNodes>
            0 -1 60 -538514913 1894142215 741480857 1066440827
            -1859937472 -1077335908 -360449127 -71093973</internalNodes>
          <leafValues>
            -6.1236512660980225e-01 4.8897185921669006e-01</leafValues></_>
        <_>
          <internalNodes>
            0 -1 1 -423247848 750945586 -754949879 -481306618 -939169429
            17277762 -746167991 -270535737</internalNodes>
          <leafValues>
            -5.9009635448455811e-01 5.2242934703826904e-01</leafValues></_>
        <_>
          <internalNodes>
            0 -1 56 -775030911 462851464 -1859698624 -540229612
            291760809 -1078853479 1244316137 520085685</internalNodes>
          <leafValues>
            -6.1593061685562134e-01 5.4187941551208496e-01</leafValues></_></weakClassifiers></_>
    <!-- stage 15 -->
    <_>
      <maxWeakCount>4</maxWeakCount>
      <stageThreshold>-4.8356655240058899e-01</stageThreshold>
      <weakClassifiers>
        <_>
          <internalNodes>
            0 -1 20 -49089869 -788311674 26509599 -1792292784
            -2138308433 -1932803844 -1063007922 -1148598017</internalNodes>
          <leafValues>
            -6.4542937278747559e-01 3.9622640609741211e-01</leafValues></_>
        <_>
          <internalNodes>
            0 -1 46 858455485 2040062236 119899 760053954 8561138
            -1284333432 -1534533495 -1173157253</internalNodes>
          <leafValues>
            -5.9801113605499268e-01 4.7943982481956482e-01</leafValues></_>
        <_>
          <internalNodes>
            0 -1 23 -795902121 -753315186 -2142985809 354304308
            -121622388 1032216713 -1543452776 -1879166118</internalNodes>
          <leafValues>
            -5.8542901277542114e-01 5.3464549779891968e-01</leafValues></_>
        <_>
          <internalNodes>
            0 -1 75 1253530890 1488216985 -1556626340 507544723
            1368208900 1040908292 1976198214 -1302342949</internalNodes>
          <leafValues>
            -7.7380383014678955e-01 3.9840304851531982e-01</leafValues></_></weakClassifiers></_>
    <!-- stage 16 -->
    <_>
      <maxWeakCount>4</maxWeakCount>
      <stageThreshold>-7.8320235013961792e-01</stageThreshold>
      <weakClassifiers>
        <_>
          <internalNodes>
            0 -1 38 -1309344809 1909507575 -1876799287 -115687090
            -1862255463 -74316798 -225887490 -270733554</internalNodes>
          <leafValues>
            -6.7058825492858887e-01 3.2222223281860352e-01</leafValues></_>
        <_>
          <internalNodes>
            0 -1 40 -193873840 -1827724157 1393106255 -1484861281
            831066004 -1081370412 -2138494675 -1514674099</internalNodes>
          <leafValues>
            -6.6748946905136108e-01 4.0587964653968811e-01</leafValues></_>
        <_>
          <internalNodes>
            0 -1 16 155415136 287115273 -1851515614 2026623240 913410890
            1716552761 -236388386 2075614283</internalNodes>
          <leafValues>
            -7.5843322277069092e-01 3.6637306213378906e-01</leafValues></_>
        <_>
          <internalNodes>
            0 -1 45 -763698968 -1089208319 16853042 -1761345021
            -889120590 -1685708637 268527276 894406867</internalNodes>
          <leafValues>
            -7.5287097692489624e-01 4.4315350055694580e-01</leafValues></_></weakClassifiers></_>
    <!-- stage 17 -->
    <_>
      <maxWeakCount>4</maxWeakCount>
      <stageThreshold>-6.2433218955993652e-01</stageThreshold>
      <weakClassifiers>
        <_>
          <internalNodes>
            0 -1 59 -733093973 -2130472501 -511682199 -48299528
            -1463155797 -1736277877 1233764380 -643175719</internalNodes>
          <leafValues>
            -6.7941176891326904e-01 3.3888888359069824e-01</leafValues></_>
        <_>
          <internalNodes>
            0 -1 17 -1513358613 -1853138495 -905940870 1343525144
            -293523197 2142775349 -461334048 -25900463</internalNodes>
          <leafValues>
            -7.0043289661407471e-01 3.6403614282608032e-01</leafValues></_>
        <_>
          <internalNodes>
            0 -1 14 -512793433 -2081495774 -1935470149 -310144950
            946847967 58213357 1930255014 -220073242</internalNodes>
          <leafValues>
            -6.1022764444351196e-01 4.7775396704673767e-01</leafValues></_>
        <_>
          <internalNodes>
            0 -1 74 1802216215 590254484 -2124655822 -2003778162
            -524065273 639353603 -615264779 -1500059909</internalNodes>
          <leafValues>
            -7.1702957153320313e-01 4.6014234423637390e-01</leafValues></_></weakClassifiers></_>
    <!-- stage 18 -->
    <_>
      <maxWeakCount>4</maxWeakCount>
      <stageThreshold>-6.4208018779754639e-01</stageThreshold>
      <weakClassifiers>
        <_>
          <internalNodes>
            0 -1 48 -677001741 -587021802 1234204639 -318275426
            -1878879585 -1985871792 -510801493 -1618239269</internalNodes>
          <leafValues>
            -6.0000002384185791e-01 4.7169810533523560e-01</leafValues></_>
        <_>
          <internalNodes>
            0 -1 8 471061138 819007640 -2097147814 -786869802
            -1878437709 -1577049469 -354889059 1534550977</internalNodes>
          <leafValues>
            -7.8467774391174316e-01 3.3325484395027161e-01</leafValues></_>
        <_>
          <internalNodes>
            0 -1 7 -1060198870 -1806450238 -1040072421 1402282370
            1224919077 -670334453 1233717379 1938780115</internalNodes>
          <leafValues>
            -7.2115242481231689e-01 3.5746294260025024e-01</leafValues></_>
        <_>
          <internalNodes>
            0 -1 73 -535562360 303065157 16777479 -746991359 -1019083168
            1360593024 1707253912 -1540886277</internalNodes>
          <leafValues>
            -6.8656349182128906e-01 4.4340616464614868e-01</leafValues></_></weakClassifiers></_>
    <!-- stage 19 -->
    <_>
      <maxWeakCount>6</maxWeakCount>
      <stageThreshold>-7.0550948381423950e-01</stageThreshold>
      <weakClassifiers>
        <_>
          <internalNodes>
            0 -1 31 -2079335465 -247067570 -2080274985 -1086353017
            -489752439 -431927575 -1735292533 -5732979</internalNodes>
          <leafValues>
            -5.9183675050735474e-01 4.8437500000000000e-01</leafValues></_>
        <_>
          <internalNodes>
            0 -1 63 -1565394109 -1893543478 1149387027 -53309092
            -1995691145 -1959116197 1296526853 -1631274764</internalNodes>
          <leafValues>
            -7.5638210773468018e-01 3.3230927586555481e-01</leafValues></_>
        <_>
          <internalNodes>
            0 -1 49 542643569 433936539 -1860446790 -1279835775
            -1073667586 1371570816 -2096961335 -1429677036</internalNodes>
          <leafValues>
            -7.0994526147842407e-01 3.7675935029983521e-01</leafValues></_>
        <_>
          <internalNodes>
            0 -1 28 -644430746 1238630914 1208734029 1572946123
            -1057393972 1244233913 167846010 990634811</internalNodes>
          <leafValues>
            -6.4604252576828003e-01 4.9666658043861389e-01</leafValues></_>
        <_>
          <internalNodes>
            0 -1 29 -2096995291 -758849340 1365492289 -611430380
            -1408417125 -1170702327 -1147358683 -587372731</internalNodes>
          <leafValues>
            -6.8461334705352783e-01 4.2674851417541504e-01</leafValues></_>
        <_>
          <internalNodes>
            0 -1 67 -1051467349 -2096516956 1476461427 -443711352
            168336411 -1946124222 1652656541 -426790516</internalNodes>
          <leafValues>
            -6.0344731807708740e-01 5.6336277723312378e-01</leafValues></_></weakClassifiers></_></stages>
  <features>
    <_>
      <rect>
        0 5 10 8</rect></_>
    <_>
      <rect>
        0 16 2 4</rect></_>
    <_>
      <rect>
        0 18 4 8</rect></_>
    <_>
      <rect>
        0 24 1 1</rect></_>
    <_>
      <rect>
        0 24 3 4</rect></_>
    <_>
      <rect>
        0 25 2 2</rect></_>
    <_>
      <rect>
        0 28 6 4</rect></_>
    <_>
      <rect>
        1 5 4 11</rect></_>
    <_>
      <rect>
        1 14 13 7</rect></_>
    <_>
      <rect>
        2 2 6 5</rect></_>
    <_>
      <rect>
        2 6 4 3</rect></_>
    <_>
      <rect>
        2 13 5 10</rect></_>
    <_>
      <rect>
        2 18 8 10</rect></_>
    <_>
      <rect>
        2 28 2 3</rect></_>
    <_>
      <rect>
        3 11 3 3</rect></_>
    <_>
      <rect>
        4 10 10 11</rect></_>
    <_>
      <rect>
        4 22 7 6</rect></_>
    <_>
      <rect>
        4 35 3 2</rect></_>
    <_>
      <rect>
        4 39 5 2</rect></_>
    <_>
      <rect>
        5 9 10 11</rect></_>
    <_>
      <rect>
        6 1 6 7</rect></_>
    <_>
      <rect>
        6 4 4 3</rect></_>
    <_>
      <rect>
        6 10 11 10</rect></_>
    <_>
      <rect>
        6 34 3 4</rect></_>
    <_>
      <rect>
        7 4 2 2</rect></_>
    <_>
      <rect>
        8 2 7 14</rect></_>
    <_>
      <rect>
        8 3 2 3</rect></_>
    <_>
      <rect>
        8 8 3 2</rect></_>
    <_>
      <rect>
        8 32 9 5</rect></_>
    <_>
      <rect>
        9 11 2 3</rect></_>
    <_>
      <rect>
        10 4 7 13</rect></_>
    <_>
      <rect>
        10 14 7 6</rect></_>
    <_>
      <rect>
        10 15 7 10</rect></_>
    <_>
      <rect>
        11 0 9 11</rect></_>
    <_>
      <rect>
        11 4 9 11</rect></_>
    <_>
      <rect>
        11 11 10 12</rect></_>
    <_>
      <rect>
        11 12 10 11</rect></_>
    <_>
      <rect>
        11 36 3 4</rect></_>
    <_>
      <rect>
        11 39 5 3</rect></_>
    <_>
      <rect>
        11 42 3 2</rect></_>
    <_>
      <rect>
        12 0 8 5</rect></_>
    <_>
      <rect>
        13 9 3 3</rect></_>
    <_>
      <rect>
        14 22 9 8</rect></_>
    <_>
      <rect>
        15 42 6 2</rect></_>
    <_>
      <rect>
        16 0 2 1</rect></_>
    <_>
      <rect>
        16 2 8 10</rect></_>
    <_>
      <rect>
        16 27 6 7</rect></_>
    <_>
      <rect>
        17 1 1 1</rect></_>
    <_>
      <rect>
        17 30 7 5</rect></_>
    <_>
      <rect>
        18 1 1 1</rect></_>
    <_>
      <rect>
        19 4 6 2</rect></_>
    <_>
      <rect>
        19 45 1 1</rect></_>
    <_>
      <rect>
        20 6 6 8</rect></_>
    <_>
      <rect>
        20 39 4 3</rect></_>
    <_>
      <rect>
        20 44 1 1</rect></_>
    <_>
      <rect>
        23 10 5 3</rect></_>
    <_>
      <rect>
        24 33 3 3</rect></_>
    <_>
      <rect>
        24 45 1 1</rect></_>
    <_>
      <rect>
        25 14 4 4</rect></_>
    <_>
      <rect>
        26 36 5 4</rect></_>
    <_>
      <rect>
        27 4 4 3</rect></_>
    <_>
      <rect>
        28 30 4 6</rect></_>
    <_>
      <rect>
        29 11 2 2</rect></_>
    <_>
      <rect>
        29 36 2 2</rect></_>
    <_>
      <rect>
        30 3 2 3</rect></_>
    <_>
      <rect>
        30 3 3 4</rect></_>
    <_>
      <rect>
        30 26 3 5</rect></_>
    <_>
      <rect>
        30 30 3 6</rect></_>
    <_>
      <rect>
        30 36 2 2</rect></_>
    <_>
      <rect>
        31 8 2 2</rect></_>
    <_>
      <rect>
        31 10 3 6</rect></_>
    <_>
      <rect>
        31 23 3 8</rect></_>
    <_>
      <rect>
        32 10 3 2</rect></_>
    <_>
      <rect>
        32 11 3 7</rect></_>
    <_>
      <rect>
        32 20 2 3</rect></_>
    <_>
      <rect>
        35 12 2 4</rect></_>
    <_>
      <rect>
        35 14 2 3</rect></_>
    <_>
      <rect>
        38 21 1 1</rect></_>
    <_>
      <rect>
        38 22 1 2</rect></_>
    <_>
      <rect>
        38 23 1 1</rect></_></features></cascade>
</opencv_storage>
